digraph Tree {
node [shape=box] ;
0 [label="redness_of_eyes <= 0.5\ngini = 0.9755\nsamples = 3296\nvalue = [83, 78, 78, 80, 84, 78, 72, 83, 82, 89, 86, 74\n85, 70, 82, 87, 77, 77, 78, 73, 80, 82, 70, 83\n78, 76, 82, 84, 83, 85, 81, 90, 82, 89, 74, 87\n80, 79, 79, 80, 76]"] ;
1 [label="internal_itching <= 0.5\ngini = 0.9749\nsamples = 3210\nvalue = [83, 78, 78, 80, 84, 78, 72, 83, 82, 89, 0, 74\n85, 70, 82, 87, 77, 77, 78, 73, 80, 82, 70, 83\n78, 76, 82, 84, 83, 85, 81, 90, 82, 89, 74, 87\n80, 79, 79, 80, 76]"] ;
0 -> 1 [labeldistance=2.5, labelangle=45, headlabel="True"] ;
2 [label="hip_joint_pain <= 0.5\ngini = 0.9743\nsamples = 3124\nvalue = [83, 78, 78, 80, 84, 78, 72, 83, 82, 89, 0, 74\n85, 70, 82, 87, 77, 77, 78, 73, 80, 82, 70, 83\n78, 76, 82, 84, 83, 85, 81, 90, 82, 3, 74, 87\n80, 79, 79, 80, 76]"] ;
1 -> 2 ;
3 [label="polyuria <= 0.5\ngini = 0.9737\nsamples = 3038\nvalue = [83, 78, 78, 80, 84, 78, 72, 83, 82, 89, 0, 74\n85, 70, 82, 87, 77, 77, 78, 73, 80, 82, 70, 83\n78, 76, 82, 84, 83, 85, 81, 4, 82, 3, 74, 87\n80, 79, 79, 80, 76]"] ;
2 -> 3 ;
4 [label="silver_like_dusting <= 0.5\ngini = 0.973\nsamples = 2953\nvalue = [83, 78, 78, 80, 84, 78, 72, 83, 82, 89, 0, 74\n0, 70, 82, 87, 77, 77, 78, 73, 80, 82, 70, 83\n78, 76, 82, 84, 83, 85, 81, 4, 82, 3, 74, 87\n80, 79, 79, 80, 76]"] ;
3 -> 4 ;
5 [label="swollen_extremeties <= 0.5\ngini = 0.9723\nsamples = 2870\nvalue = [83, 78, 78, 80, 84, 78, 72, 83, 82, 89, 0, 74\n0, 70, 82, 87, 77, 77, 78, 73, 80, 82, 70, 83\n78, 76, 82, 84, 83, 85, 81, 4, 82, 3, 74, 4, 80\n79, 79, 80, 76]"] ;
4 -> 5 ;
6 [label="(...)"] ;
5 -> 6 ;
141 [label="(...)"] ;
5 -> 141 ;
142 [label="gini = 0.0\nsamples = 83\nvalue = [0, 0, 0, 0, 0, 0, 0, 0, 0, 0, 0, 0, 0, 0, 0\n0, 0, 0, 0, 0, 0, 0, 0, 0, 0, 0, 0, 0, 0, 0\n0, 0, 0, 0, 0, 83, 0, 0, 0, 0, 0]"] ;
4 -> 142 ;
143 [label="gini = 0.0\nsamples = 85\nvalue = [0, 0, 0, 0, 0, 0, 0, 0, 0, 0, 0, 0, 85, 0\n0, 0, 0, 0, 0, 0, 0, 0, 0, 0, 0, 0, 0, 0, 0\n0, 0, 0, 0, 0, 0, 0, 0, 0, 0, 0, 0]"] ;
3 -> 143 ;
144 [label="gini = 0.0\nsamples = 86\nvalue = [0, 0, 0, 0, 0, 0, 0, 0, 0, 0, 0, 0, 0, 0, 0\n0, 0, 0, 0, 0, 0, 0, 0, 0, 0, 0, 0, 0, 0, 0\n0, 86, 0, 0, 0, 0, 0, 0, 0, 0, 0]"] ;
2 -> 144 ;
145 [label="gini = 0.0\nsamples = 86\nvalue = [0, 0, 0, 0, 0, 0, 0, 0, 0, 0, 0, 0, 0, 0, 0\n0, 0, 0, 0, 0, 0, 0, 0, 0, 0, 0, 0, 0, 0, 0\n0, 0, 0, 86, 0, 0, 0, 0, 0, 0, 0]"] ;
1 -> 145 ;
146 [label="gini = 0.0\nsamples = 86\nvalue = [0, 0, 0, 0, 0, 0, 0, 0, 0, 0, 86, 0, 0, 0\n0, 0, 0, 0, 0, 0, 0, 0, 0, 0, 0, 0, 0, 0, 0\n0, 0, 0, 0, 0, 0, 0, 0, 0, 0, 0, 0]"] ;
0 -> 146 [labeldistance=2.5, labelangle=-45, headlabel="False"] ;
}